<?xml version="1.0"?>
<opencv_storage>
<cascade>
  <stageType>BOOST</stageType>
  <featureType>HAAR</featureType>
  <height>24</height>
  <width>24</width>
  <stageParams>
    <boostType>GAB</boostType>
    <minHitRate>9.9500000476837158e-01</minHitRate>
    <maxFalseAlarm>5.0000000000000000e-01</maxFalseAlarm>
    <weightTrimRate>9.4999998807907104e-01</weightTrimRate>
    <maxDepth>1</maxDepth>
    <maxWeakCount>100</maxWeakCount></stageParams>
  <featureParams>
    <maxCatCount>0</maxCatCount>
    <featSize>1</featSize>
    <mode>BASIC</mode></featureParams>
  <stageNum>20</stageNum>
  <stages>
    <!-- stage 0 -->
    <_>
      <maxWeakCount>6</maxWeakCount>
      <stageThreshold>-1.9191019535064697e+00</stageThreshold>
      <weakClassifiers>
        <_>
          <internalNodes>
            0 -1 186 -5.2439361810684204e-02</internalNodes>
          <leafValues>
            7.3234200477600098e-01 -9.3077641725540161e-01</leafValues></_>
        <_>
          <internalNodes>
            0 -1 119 -7.2939842939376831e-02</internalNodes>
          <leafValues>
            5.0396782159805298e-01 -8.2956701517105103e-01</leafValues></_>
        <_>
          <internalNodes>
            0 -1 234 1.5782678499817848e-02</internalNodes>
          <leafValues>
            -5.5424922704696655e-01 7.4687170982360840e-01</leafValues></_>
        <_>
          <internalNodes>
            0 -1 10 2.8321930585661903e-05</internalNodes>
          <leafValues>
            4.2488574981689453e-01 -8.4109258651733398e-01</leafValues></_>
        <_>
          <internalNodes>
            0 -1 248 -4.0164403617382050e-02</internalNodes>
          <leafValues>
            8.8402187824249268e-01 -3.9751818776130676e-01</leafValues></_>
        <_>
          <internalNodes>
            0 -1 319 -3.1343013688456267e-05</internalNodes>
          <leafValues>
            -8.6898195743560791e-01 3.6812314391136169e-01</leafValues></_></weakClassifiers></_>
    <!-- stage 1 -->
    <_>
      <maxWeakCount>12</maxWeakCount>
      <stageThreshold>-2.4863438606262207e+00</stageThreshold>
      <weakClassifiers>
        <_>
          <internalNodes>
            0 -1 194 -3.7504460662603378e-02</internalNodes>
          <leafValues>
            7.7099233865737915e-01 -9.2797785997390747e-01</leafValues></_>
        <_>
          <internalNodes>
            0 -1 187 3.2231003046035767e-02</internalNodes>
          <leafValues>
            -6.0764896869659424e-01 9.0562117099761963e-01</leafValues></_>
        <_>
          <internalNodes>
            0 -1 126 -2.6336539536714554e-02</internalNodes>
          <leafValues>
            5.6272566318511963e-01 -8.4261679649353027e-01</leafValues></_>
        <_>
          <internalNodes>
            0 -1 305 1.2652839068323374e-03</internalNodes>
          <leafValues>
            -4.7531124949455261e-01 8.6541545391082764e-01</leafValues></_>
        <_>
          <internalNodes>
            0 -1 294 -1.2344343587756157e-02</internalNodes>
          <leafValues>
            8.1691831350326538e-01 -2.6755729317665100e-01</leafValues></_>
        <_>
          <internalNodes>
            0 -1 60 1.7049718007910997e-04</internalNodes>
          <leafValues>
            3.3034199476242065e-01 -9.1984713077545166e-01</leafValues></_>
        <_>
          <internalNodes>
            0 -1 375 1.3820277526974678e-03</internalNodes>
          <leafValues>
            1.6827970743179321e-01 -8.6949682235717773e-01</leafValues></_>
        <_>
          <internalNodes>
            0 -1 113 2.7133715339004993e-03</internalNodes>
          <leafValues>
            2.0282569527626038e-01 -8.4231340885162354e-01</leafValues></_>
        <_>
          <internalNodes>
            0 -1 355 -8.9888682123273611e-04</internalNodes>
          <leafValues>
            8.3144217729568481e-01 -2.5163623690605164e-01</leafValues></_>
        <_>
          <internalNodes>
            0 -1 389 2.5208182632923126e-03</internalNodes>
          <leafValues>
            2.1783073246479034e-01 -1.</leafValues></_>
        <_>
          <internalNodes>
            0 -1 263 -2.5973454117774963e-02</internalNodes>
          <leafValues>
            8.0050718784332275e-01 -2.3788386583328247e-01</leafValues></_>
        <_>
          <internalNodes>
            0 -1 74 2.2162392269819975e-05</internalNodes>
          <leafValues>
            2.0501020550727844e-01 -9.2763483524322510e-01</leafValues></_></weakClassifiers></_>
    <!-- stage 2 -->
    <_>
      <maxWeakCount>100</maxWeakCount>
      <stageThreshold>-2.7465307712554932e+00</stageThreshold>
      <weakClassifiers>
        <_>
          <internalNodes>
            0 -1 295 1.9818678498268127e-02</internalNodes>
          <leafValues>
            -9.3371212482452393e-01 6.9872957468032837e-01</leafValues></_>
        <_>
          <internalNodes>
            0 -1 93 3.1031737104058266e-02</internalNodes>
          <leafValues>
            -8.0151414871215820e-01 6.8699026107788086e-01</leafValues></_>
        <_>
          <internalNodes>
            0 -1 94 9.9799126386642456e-02</internalNodes>
          <leafValues>
            -7.5505447387695313e-01 5.4027676582336426e-01</leafValues></_>
        <_>
          <internalNodes>
            0 -1 344 4.5963138109073043e-04</internalNodes>
          <leafValues>
            -4.0361756086349487e-01 8.4572839736938477e-01</leafValues></_>
        <_>
          <internalNodes>
            0 -1 242 2.4278289638459682e-03</internalNodes>
          <leafValues>
            -2.2537170350551605e-01 9.0124535560607910e-01</leafValues></_>
        <_>
          <internalNodes>
            0 -1 380 -1.0315939107385930e-05</internalNodes>
          <leafValues>
            -8.8694542646408081e-01 2.7981191873550415e-01</leafValues></_>
        <_>
          <internalNodes>
            0 -1 109 3.1964089721441269e-03</internalNodes>
          <leafValues>
            -2.4033060669898987e-01 8.3733308315277100e-01</leafValues></_>
        <_>
          <internalNodes>
            0 -1 140 3.5031696315854788e-03</internalNodes>
          <leafValues>
            2.1928052604198456e-01 -8.6659640073776245e-01</leafValues></_>
        <_>
          <internalNodes>
            0 -1 313 2.0205231383442879e-02</internalNodes>
          <leafValues>
            -1.9486829638481140e-01 8.8581359386444092e-01</leafValues></_>
        <_>
          <internalNodes>
            0 -1 365 -4.9103968194685876e-05</internalNodes>
          <leafValues>
            -7.4766784906387329e-01 1.8913863599300385e-01</leafValues></_>
        <_>
          <internalNodes>
            0 -1 278 -4.7937007620930672e-03</internalNodes>
          <leafValues>
            9.6710288524627686e-01 -1.4089302718639374e-01</leafValues></_>
        <_>
          <internalNodes>
            0 -1 47 2.1502193063497543e-02</internalNodes>
          <leafValues>
            1.3847577571868896e-01 -9.3823170661926270e-01</leafValues></_>
        <_>
          <internalNodes>
            0 -1 390 1.4087082818150520e-02</internalNodes>
          <leafValues>
            6.9335199892520905e-02 -9.8963242769241333e-01</leafValues></_>
        <_>
          <internalNodes>
            0 -1 281 -1.0889410972595215e-02</internalNodes>
          <leafValues>
            8.3094829320907593e-01 -1.2056096643209457e-01</leafValues></_>
        <_>
          <internalNodes>
            0 -1 369 -9.6074172688531689e-06</internalNodes>
          <leafValues>
            -9.4064319133758545e-01 1.0315977782011032e-01</leafValues></_>
        <_>
          <internalNodes>
            0 -1 257 2.8388011269271374e-03</internalNodes>
          <leafValues>
            -9.6616879105567932e-02 7.7341121435165405e-01</leafValues></_>
        <_>
          <internalNodes>
            0 -1 371 -3.0662942677736282e-02</internalNodes>
          <leafValues>
            -7.4101215600967407e-01 1.1014334112405777e-01</leafValues></_>
        <_>
          <internalNodes>
            0 -1 55 2.4632341228425503e-03</internalNodes>
          <leafValues>
            5.9215448796749115e-02 -9.6022719144821167e-01</leafValues></_>
        <_>
          <internalNodes>
            0 -1 114 9.8070558160543442e-03</internalNodes>
          <leafValues>
            -8.0009281635284424e-02 8.4703296422958374e-01</leafValues></_>
        <_>
          <internalNodes>
            0 -1 111 3.5384909715503454e-03</internalNodes>
          <leafValues>
            6.3547156751155853e-02 -9.6113926172256470e-01</leafValues></_>
        <_>
          <internalNodes>
            0 -1 356 3.0741267837584019e-03</internalNodes>
          <leafValues>
            -5.6196711957454681e-02 8.8052719831466675e-01</leafValues></_>
        <_>
          <internalNodes>
            0 -1 357 -1.2106059584766626e-03</internalNodes>
          <leafValues>
            -9.3720537424087524e-01 5.2692636847496033e-02</leafValues></_>
        <_>
          <internalNodes>
            0 -1 333 2.5745877064764500e-03</internalNodes>
          <leafValues>
            -4.5984067022800446e-02 8.1234103441238403e-01</leafValues></_>
        <_>
          <internalNodes>
            0 -1 170 7.3660551570355892e-03</internalNodes>
          <leafValues>
            4.1631892323493958e-02 -8.9069569110870361e-01</leafValues></_>
        <_>
          <internalNodes>
            0 -1 340 3.3898610621690750e-02</internalNodes>
          <leafValues>
            1.3902696780860424e-02 -1.</leafValues></_>
        <_>
          <internalNodes>
            0 -1 347 6.2079640338197351e-04</internalNodes>
          <leafValues>
            -2.6480974629521370e-02 8.5421818494796753e-01</leafValues></_>
        <_>
          <internalNodes>
            0 -1 144 -8.1664770841598511e-03</internalNodes>
          <leafValues>
            -1. 2.3170964792370796e-02</leafValues></_>
        <_>
          <internalNodes>
            0 -1 266 -3.4885320812463760e-02</internalNodes>
          <leafValues>
            -9.2259633541107178e-01 1.0809785686433315e-02</leafValues></_>
        <_>
          <internalNodes>
            0 -1 307 -9.4871397595852613e-04</internalNodes>
          <leafValues>
            9.6731835603713989e-01 -1.6585998237133026e-02</leafValues></_>
        <_>
          <internalNodes>
            0 -1 277 -2.8238867525942624e-04</internalNodes>
          <leafValues>
            -8.4449714422225952e-01 1.2392251752316952e-02</leafValues></_>
        <_>
          <internalNodes>
            0 -1 328 -1.7158481568912975e-05</internalNodes>
          <leafValues>
            1. -1.0460946708917618e-02</leafValues></_>
        <_>
          <internalNodes>
            0 -1 137 -6.7108165239915252e-04</internalNodes>
          <leafValues>
            -9.4651323556900024e-01 1.0102490894496441e-02</leafValues></_>
        <_>
          <internalNodes>
            0 -1 158 -1.3716160319745541e-03</internalNodes>
          <leafValues>
            9.4993126392364502e-01 -4.5364550314843655e-03</leafValues></_>
        <_>
          <internalNodes>
            0 -1 351 -2.7237241738475859e-04</internalNodes>
          <leafValues>
            -9.2116826772689819e-01 5.9871789999306202e-03</leafValues></_>
        <_>
          <internalNodes>
            0 -1 131 -3.0907470500096679e-04</internalNodes>
          <leafValues>
            9.7296929359436035e-01 -4.8490222543478012e-03</leafValues></_>
        <_>
          <internalNodes>
            0 -1 132 -3.1516098533757031e-04</internalNodes>
          <leafValues>
            -1. 9.6902698278427124e-03</leafValues></_>
        <_>
          <internalNodes>
            0 -1 156 -2.0879996009171009e-03</internalNodes>
          <leafValues>
            9.7564637660980225e-01 -5.8751520700752735e-03</leafValues></_>
        <_>
          <internalNodes>
            0 -1 183 -3.9658006280660629e-03</internalNodes>
          <leafValues>
            -1. 5.0366958603262901e-03</leafValues></_>
        <_>
          <internalNodes>
            0 -1 270 6.9483055267482996e-04</internalNodes>
          <leafValues>
            -2.9689434450119734e-03 1.</leafValues></_>
        <_>
          <internalNodes>
            0 -1 76 -2.2032226843293756e-04</internalNodes>
          <leafValues>
            -1. 2.4319216609001160e-03</leafValues></_>
        <_>
          <internalNodes>
            0 -1 72 -3.2799776643514633e-02</internalNodes>
          <leafValues>
            1. -1.6602092655375600e-03</leafValues></_>
        <_>
          <internalNodes>
            0 -1 16 -1.4144445303827524e-03</internalNodes>
          <leafValues>
            -1. 1.6602125251665711e-03</leafValues></_>
        <_>
          <internalNodes>
            0 -1 8 -1.7660551238805056e-03</internalNodes>
          <leafValues>
            1. -8.2464941078796983e-04</leafValues></_>
        <_>
          <internalNodes>
            0 -1 8 -1.1033877963200212e-03</internalNodes>
          <leafValues>
            -1. 8.2465074956417084e-04</leafValues></_>
        <_>
          <internalNodes>
            0 -1 8 -1.7660551238805056e-03</internalNodes>
          <leafValues>
            1. -8.2465074956417084e-04</leafValues></_>
        <_>
          <internalNodes>
            0 -1 8 -1.1033877963200212e-03</internalNodes>
          <leafValues>
            -1. 8.2465074956417084e-04</leafValues></_>
        <_>
          <internalNodes>
            0 -1 8 -1.7660551238805056e-03</internalNodes>
          <leafValues>
            1. -8.2465074956417084e-04</leafValues></_>
        <_>
          <internalNodes>
            0 -1 8 -1.1033877963200212e-03</internalNodes>
          <leafValues>
            -1. 8.2465074956417084e-04</leafValues></_>
        <_>
          <internalNodes>
            0 -1 8 -6.8772165104746819e-04</internalNodes>
          <leafValues>
            1. -8.2465074956417084e-04</leafValues></_>
        <_>
          <internalNodes>
            0 -1 71 6.8951710127294064e-03</internalNodes>
          <leafValues>
            8.2465074956417084e-04 -1.</leafValues></_>
        <_>
          <internalNodes>
            0 -1 9 -3.8527022115886211e-03</internalNodes>
          <leafValues>
            1. -3.7044705823063850e-04</leafValues></_>
        <_>
          <internalNodes>
            0 -1 8 -1.4437307836487889e-03</internalNodes>
          <leafValues>
            -1. 3.7044723285362124e-04</leafValues></_>
        <_>
          <internalNodes>
            0 -1 6 -1.2882601004093885e-03</internalNodes>
          <leafValues>
            1. -3.4940071054734290e-04</leafValues></_>
        <_>
          <internalNodes>
            0 -1 6 -1.5012847725301981e-03</internalNodes>
          <leafValues>
            -1. 3.4940071054734290e-04</leafValues></_>
        <_>
          <internalNodes>
            0 -1 6 -1.2882601004093885e-03</internalNodes>
          <leafValues>
            1. -3.4940071054734290e-04</leafValues></_>
        <_>
          <internalNodes>
            0 -1 6 -1.5012847725301981e-03</internalNodes>
          <leafValues>
            -1. 3.4940071054734290e-04</leafValues></_>
        <_>
          <internalNodes>
            0 -1 6 -1.9861110486090183e-03</internalNodes>
          <leafValues>
            1. -4.3538969475775957e-04</leafValues></_>
        <_>
          <internalNodes>
            0 -1 6 -1.5012847725301981e-03</internalNodes>
          <leafValues>
            -1. 4.3538969475775957e-04</leafValues></_>
        <_>
          <internalNodes>
            0 -1 6 -1.4677110593765974e-03</internalNodes>
          <leafValues>
            1. -4.3538969475775957e-04</leafValues></_>
        <_>
          <internalNodes>
            0 -1 6 -1.5012847725301981e-03</internalNodes>
          <leafValues>
            -1. 4.3538969475775957e-04</leafValues></_>
        <_>
          <internalNodes>
            0 -1 6 -1.5194255392998457e-03</internalNodes>
          <leafValues>
            1. -8.3202699897810817e-04</leafValues></_>
        <_>
          <internalNodes>
            0 -1 6 -1.5012847725301981e-03</internalNodes>
          <leafValues>
            -1. 8.3202682435512543e-04</leafValues></_>
        <_>
          <internalNodes>
            0 -1 6 -1.5194255392998457e-03</internalNodes>
          <leafValues>
            1. -8.3202682435512543e-04</leafValues></_>
        <_>
          <internalNodes>
            0 -1 6 -1.5012847725301981e-03</internalNodes>
          <leafValues>
            -1. 8.3202682435512543e-04</leafValues></_>
        <_>
          <internalNodes>
            0 -1 6 -1.5194255392998457e-03</internalNodes>
          <leafValues>
            1. -8.3202682435512543e-04</leafValues></_>
        <_>
          <internalNodes>
            0 -1 6 -1.5012847725301981e-03</internalNodes>
          <leafValues>
            -1. 8.3202682435512543e-04</leafValues></_>
        <_>
          <internalNodes>
            0 -1 6 -1.5194255392998457e-03</internalNodes>
          <leafValues>
            1. -8.3202682435512543e-04</leafValues></_>
        <_>
          <internalNodes>
            0 -1 6 -1.5012847725301981e-03</internalNodes>
          <leafValues>
            -1. 8.3202682435512543e-04</leafValues></_>
        <_>
          <internalNodes>
            0 -1 6 -1.5194255392998457e-03</internalNodes>
          <leafValues>
            1. -8.3202682435512543e-04</leafValues></_>
        <_>
          <internalNodes>
            0 -1 6 -1.5012847725301981e-03</internalNodes>
          <leafValues>
            -1. 8.3202682435512543e-04</leafValues></_>
        <_>
          <internalNodes>
            0 -1 6 -1.5194255392998457e-03</internalNodes>
          <leafValues>
            1. -8.3202682435512543e-04</leafValues></_>
        <_>
          <internalNodes>
            0 -1 6 -1.5012847725301981e-03</internalNodes>
          <leafValues>
            -1. 8.3202682435512543e-04</leafValues></_>
        <_>
          <internalNodes>
            0 -1 6 -1.5194255392998457e-03</internalNodes>
          <leafValues>
            1. -8.3202682435512543e-04</leafValues></_>
        <_>
          <internalNodes>
            0 -1 6 -1.5012847725301981e-03</internalNodes>
          <leafValues>
            -1. 8.3202682435512543e-04</leafValues></_>
        <_>
          <internalNodes>
            0 -1 6 -1.5194255392998457e-03</internalNodes>
          <leafValues>
            1. -8.3202682435512543e-04</leafValues></_>
        <_>
          <internalNodes>
            0 -1 6 -1.5012847725301981e-03</internalNodes>
          <leafValues>
            -1. 8.3202682435512543e-04</leafValues></_>
        <_>
          <internalNodes>
            0 -1 6 -1.5194255392998457e-03</internalNodes>
          <leafValues>
            1. -8.3202682435512543e-04</leafValues></_>
        <_>
          <internalNodes>
            0 -1 6 -1.5012847725301981e-03</internalNodes>
          <leafValues>
            -1. 8.3202682435512543e-04</leafValues></_>
        <_>
          <internalNodes>
            0 -1 6 -1.5194255392998457e-03</internalNodes>
          <leafValues>
            1. -8.3202682435512543e-04</leafValues></_>
        <_>
          <internalNodes>
            0 -1 6 -1.5012847725301981e-03</internalNodes>
          <leafValues>
            -1. 8.3202682435512543e-04</leafValues></_>
        <_>
          <internalNodes>
            0 -1 6 -1.5194255392998457e-03</internalNodes>
          <leafValues>
            1. -8.3202682435512543e-04</leafValues></_>
        <_>
          <internalNodes>
            0 -1 6 -1.5012847725301981e-03</internalNodes>
          <leafValues>
            -1. 8.3202682435512543e-04</leafValues></_>
        <_>
          <internalNodes>
            0 -1 6 -1.5194255392998457e-03</internalNodes>
          <leafValues>
            1. -8.3202682435512543e-04</leafValues></_>
        <_>
          <internalNodes>
            0 -1 6 -1.5012847725301981e-03</internalNodes>
          <leafValues>
            -1. 8.3202682435512543e-04</leafValues></_>
        <_>
          <internalNodes>
            0 -1 6 -1.5194255392998457e-03</internalNodes>
          <leafValues>
            1. -8.3202682435512543e-04</leafValues></_>
        <_>
          <internalNodes>
            0 -1 6 -1.5012847725301981e-03</internalNodes>
          <leafValues>
            -1. 8.3202682435512543e-04</leafValues></_>
        <_>
          <internalNodes>
            0 -1 6 -1.5194255392998457e-03</internalNodes>
          <leafValues>
            1. -8.3202682435512543e-04</leafValues></_>
        <_>
          <internalNodes>
            0 -1 6 -1.5012847725301981e-03</internalNodes>
          <leafValues>
            -1. 8.3202682435512543e-04</leafValues></_>
        <_>
          <internalNodes>
            0 -1 6 -1.5194255392998457e-03</internalNodes>
          <leafValues>
            1. -8.3202682435512543e-04</leafValues></_>
        <_>
          <internalNodes>
            0 -1 6 -1.5012847725301981e-03</internalNodes>
          <leafValues>
            -1. 8.3202682435512543e-04</leafValues></_>
        <_>
          <internalNodes>
            0 -1 6 -1.5194255392998457e-03</internalNodes>
          <leafValues>
            1. -8.3202682435512543e-04</leafValues></_>
        <_>
          <internalNodes>
            0 -1 6 -1.5012847725301981e-03</internalNodes>
          <leafValues>
            -1. 8.3202682435512543e-04</leafValues></_>
        <_>
          <internalNodes>
            0 -1 6 -1.5194255392998457e-03</internalNodes>
          <leafValues>
            1. -8.3202682435512543e-04</leafValues></_>
        <_>
          <internalNodes>
            0 -1 6 -1.5012847725301981e-03</internalNodes>
          <leafValues>
            -1. 8.3202682435512543e-04</leafValues></_>
        <_>
          <internalNodes>
            0 -1 6 -1.5194255392998457e-03</internalNodes>
          <leafValues>
            1. -8.3202682435512543e-04</leafValues></_>
        <_>
          <internalNodes>
            0 -1 6 -1.5012847725301981e-03</internalNodes>
          <leafValues>
            -1. 8.3202682435512543e-04</leafValues></_>
        <_>
          <internalNodes>
            0 -1 6 -1.5194255392998457e-03</internalNodes>
          <leafValues>
            1. -8.3202682435512543e-04</leafValues></_>
        <_>
          <internalNodes>
            0 -1 6 -1.5012847725301981e-03</internalNodes>
          <leafValues>
            -1. 8.3202682435512543e-04</leafValues></_>
        <_>
          <internalNodes>
            0 -1 6 -1.5194255392998457e-03</internalNodes>
          <leafValues>
            1. -8.3202682435512543e-04</leafValues></_>
        <_>
          <internalNodes>
            0 -1 6 -1.5012847725301981e-03</internalNodes>
          <leafValues>
            -1. 8.3202682435512543e-04</leafValues></_></weakClassifiers></_>
    <!-- stage 3 -->
    <_>
      <maxWeakCount>100</maxWeakCount>
      <stageThreshold>-2.9355890750885010e+00</stageThreshold>
      <weakClassifiers>
        <_>
          <internalNodes>
            0 -1 209 3.6195041611790657e-03</internalNodes>
          <leafValues>
            -9.8526704311370850e-01 9.0019196271896362e-01</leafValues></_>
        <_>
          <internalNodes>
            0 -1 70 -4.5579386642202735e-04</internalNodes>
          <leafValues>
            7.4273067712783813e-01 -9.2676579952239990e-01</leafValues></_>
        <_>
          <internalNodes>
            0 -1 243 -2.2621113806962967e-02</internalNodes>
          <leafValues>
            8.8100844621658325e-01 -6.7467856407165527e-01</leafValues></_>
        <_>
          <internalNodes>
            0 -1 110 3.0474070808850229e-04</internalNodes>
          <leafValues>
            -3.1976988911628723e-01 8.9802473783493042e-01</leafValues></_>
        <_>
          <internalNodes>
            0 -1 192 1.6508100088685751e-03</internalNodes>
          <leafValues>
            -1.6700437664985657e-01 8.7854886054992676e-01</leafValues></_>
        <_>
          <internalNodes>
            0 -1 394 -3.9062002906575799e-04</internalNodes>
          <leafValues>
            -8.7872493267059326e-01 2.0216430723667145e-01</leafValues></_>
        <_>
          <internalNodes>
            0 -1 283 1.5240064822137356e-02</internalNodes>
          <leafValues>
            -1.4344282448291779e-01 1.</leafValues></_>
        <_>
          <internalNodes>
            0 -1 377 3.0667462851852179e-04</internalNodes>
          <leafValues>
            1.4334851503372192e-01 -9.1321319341659546e-01</leafValues></_>
        <_>
          <internalNodes>
            0 -1 227 1.1863202787935734e-02</internalNodes>
          <leafValues>
            -1.2021496146917343e-01 9.5405262708663940e-01</leafValues></_>
        <_>
          <internalNodes>
            0 -1 353 -1.0630511678755283e-04</internalNodes>
          <leafValues>
            -9.4135808944702148e-01 7.9842008650302887e-02</leafValues></_>
        <_>
          <internalNodes>
            0 -1 217 2.0151711069047451e-03</internalNodes>
          <leafValues>
            -6.8022377789020538e-02 9.3145406246185303e-01</leafValues></_>
        <_>
          <internalNodes>
            0 -1 181 -1.6128690913319588e-04</internalNodes>
          <leafValues>
            -8.8207709789276123e-01 5.7276215404272079e-02</leafValues></_>
        <_>
          <internalNodes>
            0 -1 299 2.9449402354657650e-03</internalNodes>
          <leafValues>
            -3.5915412008762360e-02 1.</leafValues></_>
        <_>
          <internalNodes>
            0 -1 331 -5.9113754105055705e-05</internalNodes>
          <leafValues>
            -7.5880271196365356e-01 3.7724662572145462e-02</leafValues></_>
        <_>
          <internalNodes>
            0 -1 211 3.6629091482609510e-05</internalNodes>
          <leafValues>
            -2.3955360054969788e-02 8.9779549837112427e-01</leafValues></_>
        <_>
          <internalNodes>
            0 -1 232 -3.9984239265322685e-04</internalNodes>
          <leafValues>
            -1. 1.3323778286576271e-02</leafValues></_>
        <_>
          <internalNodes>
            0 -1 325 7.4598094215616584e-05</internalNodes>
          <leafValues>
            -1.6340738162398338e-02 9.6380031108856201e-01</leafValues></_>
        <_>
          <internalNodes>
            0 -1 238 -7.6304818503558636e-04</internalNodes>
          <leafValues>
            -9.0682214498519897e-01 1.3688186183571815e-02</leafValues></_>
        <_>
          <internalNodes>
            0 -1 81 -2.1548103541135788e-02</internalNodes>
          <leafValues>
            8.7958484888076782e-01 -9.6580749377608299e-03</leafValues></_>
        <_>
          <internalNodes>
            0 -1 244 -7.1059656329452991e-04</internalNodes>
          <leafValues>
            -1. 8.5348021239042282e-03</leafValues></_>
        <_>
          <internalNodes>
            0 -1 191 -1.9472673535346985e-02</internalNodes>
          <leafValues>
            9.8323071002960205e-01 -3.6991534288972616e-03</leafValues></_>
        <_>
          <internalNodes>
            0 -1 273 -7.1647478034719825e-04</internalNodes>
          <leafValues>
            -1. 3.0082771554589272e-03</leafValues></_>
        <_>
          <internalNodes>
            0 -1 75 -1.5997704758774489e-04</internalNodes>
          <leafValues>
            1. -5.1142321899533272e-04</leafValues></_>
        <_>
          <internalNodes>
            0 -1 151 -9.8522923508426175e-06</internalNodes>
          <leafValues>
            -1. 1.7958976095542312e-03</leafValues></_>
        <_>
          <internalNodes>
            0 -1 80 -3.3860832452774048e-02</internalNodes>
          <leafValues>
            1. -2.8769643977284431e-03</leafValues></_>
        <_>
          <internalNodes>
            0 -1 106 -2.4360141251236200e-03</internalNodes>
          <leafValues>
            -1. 1.8271516310051084e-03</leafValues></_>
        <_>
          <internalNodes>
            0 -1 3 -8.7348720990121365e-04</internalNodes>
          <leafValues>
            1. 2.0333137396022494e-09</leafValues></_>
        <_>
          <internalNodes>
            0 -1 3 -5.4270436521619558e-04</internalNodes>
          <leafValues>
            -1. 1.1048005738067187e-14</leafValues></_>
        <_>
          <internalNodes>
            0 -1 3 -2.8499084874056280e-04</internalNodes>
          <leafValues>
            1. -3.1210373132759765e-15</leafValues></_>
        <_>
          <internalNodes>
            0 -1 3 -1.4329495024867356e-04</internalNodes>
          <leafValues>
            -1. -1.3351124744068361e-14</leafValues></_>
        <_>
          <internalNodes>
            0 -1 3 -2.8499084874056280e-04</internalNodes>
          <leafValues>
            1. -8.1355320768442159e-15</leafValues></_>
        <_>
          <internalNodes>
            0 -1 3 -1.4329495024867356e-04</internalNodes>
          <leafValues>
            -1. 9.3859924173156362e-15</leafValues></_>
        <_>
          <internalNodes>
            0 -1 3 -7.5038653449155390e-05</internalNodes>
          <leafValues>
            1. 2.5809237898439565e-15</leafValues></_>
        <_>
          <internalNodes>
            0 -1 3 -1.4329495024867356e-04</internalNodes>
          <leafValues>
            -1. 5.9261050792047340e-15</leafValues></_>
        <_>
          <internalNodes>
            0 -1 3 -7.5038653449155390e-05</internalNodes>
          <leafValues>
            1. 9.0725419459535515e-15</leafValues></_>
        <_>
          <internalNodes>
            0 -1 3 -1.4329495024867356e-04</internalNodes>
          <leafValues>
            -1. -2.2333179007299683e-14</leafValues></_>
        <_>
          <internalNodes>
            0 -1 3 -7.5038653449155390e-05</internalNodes>
          <leafValues>
            1. 1.6989739422181710e-14</leafValues></_>
        <_>
          <internalNodes>
            0 -1 3 -5.5830067140050232e-05</internalNodes>
          <leafValues>
            -1. -3.3219411272729531e-17</leafValues></_>
        <_>
          <internalNodes>
            0 -1 3 -7.5038653449155390e-05</internalNodes>
          <leafValues>
            1. 1.4596779813690449e-16</leafValues></_>
        <_>
          <internalNodes>
            0 -1 3 -5.5830067140050232e-05</internalNodes>
          <leafValues>
            -1. -1.5963457150871218e-15</leafValues></_>
        <_>
          <internalNodes>
            0 -1 3 -7.5038653449155390e-05</internalNodes>
          <leafValues>
            1. -5.4301895232022066e-16</leafValues></_>
        <_>
          <internalNodes>
            0 -1 3 -5.5830067140050232e-05</internalNodes>
          <leafValues>
            -1. -2.0311458322420017e-15</leafValues></_>
        <_>
          <internalNodes>
            0 -1 3 -7.5038653449155390e-05</internalNodes>
          <leafValues>
            1. 1.6939053817650960e-15</leafValues></_>
        <_>
          <internalNodes>
            0 -1 3 -5.5830067140050232e-05</internalNodes>
          <leafValues>
            -1. -2.5074419876037514e-15</leafValues></_>
        <_>
          <internalNodes>
            0 -1 3 -7.5038653449155390e-05</internalNodes>
          <leafValues>
            1. 1.6244916670123165e-15</leafValues></_>
        <_>
          <internalNodes>
            0 -1 3 -5.5830067140050232e-05</internalNodes>
          <leafValues>
            -1. -1.9913505303141002e-15</leafValues></_>
        <_>
          <internalNodes>
            0 -1 3 -7.5038653449155390e-05</internalNodes>
          <leafValues>
            1. 1.6445081143471197e-15</leafValues></_>
        <_>
          <internalNodes>
            0 -1 3 -5.5830067140050232e-05</internalNodes>
          <leafValues>
            -1. -2.0640251101555719e-15</leafValues></_>
        <_>
          <internalNodes>
            0 -1 3 -7.5038653449155390e-05</internalNodes>
          <leafValues>
            1. 1.6571500810848901e-15</leafValues></_>
        <_>
          <internalNodes>
            0 -1 3 -5.5830067140050232e-05</internalNodes>
          <leafValues>
            -1. -2.0517804018700637e-15</leafValues></_>
        <_>
          <internalNodes>
            0 -1 3 -7.5038653449155390e-05</internalNodes>
          <leafValues>
            1. 1.6943735792266908e-15</leafValues></_>
        <_>
          <internalNodes>
            0 -1 3 -5.5830067140050232e-05</internalNodes>
          <leafValues>
            -1. -2.0481523479987367e-15</leafValues></_>
        <_>
          <internalNodes>
            0 -1 3 -7.5038653449155390e-05</internalNodes>
          <leafValues>
            1. 1.7042062553157739e-15</leafValues></_>
        <_>
          <internalNodes>
            0 -1 3 -5.5830067140050232e-05</internalNodes>
          <leafValues>
            -1. -1.9179957830159832e-15</leafValues></_>
        <_>
          <internalNodes>
            0 -1 3 -7.5038653449155390e-05</internalNodes>
          <leafValues>
            1. 1.7079520467667693e-15</leafValues></_>
        <_>
          <internalNodes>
            0 -1 3 -5.5830067140050232e-05</internalNodes>
          <leafValues>
            -1. -1.9084721680735295e-15</leafValues></_>
        <_>
          <internalNodes>
            0 -1 3 -7.5038653449155390e-05</internalNodes>
          <leafValues>
            1. 2.2486298000207790e-15</leafValues></_>
        <_>
          <internalNodes>
            0 -1 3 -5.5830067140050232e-05</internalNodes>
          <leafValues>
            -1. -1.9751376844289424e-15</leafValues></_>
        <_>
          <internalNodes>
            0 -1 3 -7.5038653449155390e-05</internalNodes>
          <leafValues>
            1. 2.1279460280036440e-15</leafValues></_>
        <_>
          <internalNodes>
            0 -1 3 -5.5830067140050232e-05</internalNodes>
          <leafValues>
            -1. -2.0340937186566835e-15</leafValues></_>
        <_>
          <internalNodes>
            0 -1 3 -7.5038653449155390e-05</internalNodes>
          <leafValues>
            1. 1.5878533627579502e-15</leafValues></_>
        <_>
          <internalNodes>
            0 -1 3 -5.5830067140050232e-05</internalNodes>
          <leafValues>
            -1. -1.9086989611451569e-15</leafValues></_>
        <_>
          <internalNodes>
            0 -1 3 -7.5038653449155390e-05</internalNodes>
          <leafValues>
            1. 2.2485126977158211e-15</leafValues></_>
        <_>
          <internalNodes>
            0 -1 3 -5.5830067140050232e-05</internalNodes>
          <leafValues>
            -1. -1.9753644775005698e-15</leafValues></_>
        <_>
          <internalNodes>
            0 -1 3 -7.5038653449155390e-05</internalNodes>
          <leafValues>
            1. 2.1277118233937282e-15</leafValues></_>
        <_>
          <internalNodes>
            0 -1 3 -5.5830067140050232e-05</internalNodes>
          <leafValues>
            -1. -2.0360211421281606e-15</leafValues></_>
        <_>
          <internalNodes>
            0 -1 3 -7.5038653449155390e-05</internalNodes>
          <leafValues>
            1. 1.5281552217892959e-15</leafValues></_>
        <_>
          <internalNodes>
            0 -1 3 -5.5830067140050232e-05</internalNodes>
          <leafValues>
            -1. -1.9665210300147612e-15</leafValues></_>
        <_>
          <internalNodes>
            0 -1 3 -7.5038653449155390e-05</internalNodes>
          <leafValues>
            1. 2.1307552127732129e-15</leafValues></_>
        <_>
          <internalNodes>
            0 -1 3 -5.5830067140050232e-05</internalNodes>
          <leafValues>
            -1. -2.0330732557134789e-15</leafValues></_>
        <_>
          <internalNodes>
            0 -1 3 -7.5038653449155390e-05</internalNodes>
          <leafValues>
            1. 2.0687159786174662e-15</leafValues></_>
        <_>
          <internalNodes>
            0 -1 3 -5.5830067140050232e-05</internalNodes>
          <leafValues>
            -1. -2.1491711913541791e-15</leafValues></_>
        <_>
          <internalNodes>
            0 -1 3 -7.5038653449155390e-05</internalNodes>
          <leafValues>
            1. 2.1286482183169178e-15</leafValues></_>
        <_>
          <internalNodes>
            0 -1 3 -5.5830067140050232e-05</internalNodes>
          <leafValues>
            -1. -2.0334133394418015e-15</leafValues></_>
        <_>
          <internalNodes>
            0 -1 3 -7.5038653449155390e-05</internalNodes>
          <leafValues>
            1. 2.0677795836942766e-15</leafValues></_>
        <_>
          <internalNodes>
            0 -1 3 -5.5830067140050232e-05</internalNodes>
          <leafValues>
            -1. -2.1495112750825017e-15</leafValues></_>
        <_>
          <internalNodes>
            0 -1 3 -7.5038653449155390e-05</internalNodes>
          <leafValues>
            1. 2.1277118233937282e-15</leafValues></_>
        <_>
          <internalNodes>
            0 -1 3 -5.5830067140050232e-05</internalNodes>
          <leafValues>
            -1. -2.0360211421281606e-15</leafValues></_>
        <_>
          <internalNodes>
            0 -1 3 -7.5038653449155390e-05</internalNodes>
          <leafValues>
            1. 1.5281552217892959e-15</leafValues></_>
        <_>
          <internalNodes>
            0 -1 3 -5.5830067140050232e-05</internalNodes>
          <leafValues>
            -1. -1.9665210300147612e-15</leafValues></_>
        <_>
          <internalNodes>
            0 -1 3 -7.5038653449155390e-05</internalNodes>
          <leafValues>
            1. 2.1307552127732129e-15</leafValues></_>
        <_>
          <internalNodes>
            0 -1 3 -5.5830067140050232e-05</internalNodes>
          <leafValues>
            -1. -2.0330732557134789e-15</leafValues></_>
        <_>
          <internalNodes>
            0 -1 3 -7.5038653449155390e-05</internalNodes>
          <leafValues>
            1. 2.0687159786174662e-15</leafValues></_>
        <_>
          <internalNodes>
            0 -1 3 -5.5830067140050232e-05</internalNodes>
          <leafValues>
            -1. -2.1491711913541791e-15</leafValues></_>
        <_>
          <internalNodes>
            0 -1 3 -7.5038653449155390e-05</internalNodes>
          <leafValues>
            1. 2.0708229730737613e-15</leafValues></_>
        <_>
          <internalNodes>
            0 -1 3 -5.5830067140050232e-05</internalNodes>
          <leafValues>
            -1. -2.1406678275966932e-15</leafValues></_>
        <_>
          <internalNodes>
            0 -1 3 -7.5038653449155390e-05</internalNodes>
          <leafValues>
            1. 1.9006248313336921e-15</leafValues></_>
        <_>
          <internalNodes>
            0 -1 3 -5.5830067140050232e-05</internalNodes>
          <leafValues>
            -1. -2.1372665667969935e-15</leafValues></_>
        <_>
          <internalNodes>
            0 -1 3 -7.5038653449155390e-05</internalNodes>
          <leafValues>
            1. 2.0813579453552366e-15</leafValues></_>
        <_>
          <internalNodes>
            0 -1 3 -5.5830067140050232e-05</internalNodes>
          <leafValues>
            -1. -2.1059746286265779e-15</leafValues></_>
        <_>
          <internalNodes>
            0 -1 3 -7.5038653449155390e-05</internalNodes>
          <leafValues>
            1. -7.1476231509014221e-15</leafValues></_>
        <_>
          <internalNodes>
            0 -1 3 -5.5830067140050232e-05</internalNodes>
          <leafValues>
            -1. 1.2824620075483403e-14</leafValues></_>
        <_>
          <internalNodes>
            0 -1 3 -7.5038653449155390e-05</internalNodes>
          <leafValues>
            1. -2.0719935726068667e-15</leafValues></_>
        <_>
          <internalNodes>
            0 -1 3 -5.5830067140050232e-05</internalNodes>
          <leafValues>
            -1. 1.8869306379171950e-15</leafValues></_>
        <_>
          <internalNodes>
            0 -1 3 -7.5038653449155390e-05</internalNodes>
          <leafValues>
            1. 5.2557772337308696e-17</leafValues></_>
        <_>
          <internalNodes>
            0 -1 3 -5.5830067140050232e-05</internalNodes>
          <leafValues>
            -1. -2.0901018664697428e-15</leafValues></_>
        <_>
          <internalNodes>
            0 -1 3 -7.5038653449155390e-05</internalNodes>
          <leafValues>
            1. 1.3353654407965336e-15</leafValues></_>
        <_>
          <internalNodes>
            0 -1 3 -5.5830067140050232e-05</internalNodes>
          <leafValues>
            -1. -2.6778472288994243e-15</leafValues></_>
        <_>
          <internalNodes>
            0 -1 3 -7.5038653449155390e-05</internalNodes>
          <leafValues>
            1. 1.4649454939795622e-15</leafValues></_>
        <_>
          <internalNodes>
            0 -1 3 -5.5830067140050232e-05</internalNodes>
          <leafValues>
            -1. -2.1794426665813901e-15</leafValues></_></weakClassifiers></_>
    <!-- stage 4 -->
    <_>
      <maxWeakCount>100</maxWeakCount>
      <stageThreshold>-2.9499487876892090e+00</stageThreshold>
      <weakClassifiers>
        <_>
          <internalNodes>
            0 -1 163 8.8170421076938510e-04</internalNodes>
          <leafValues>
            -9.8549407720565796e-01 9.6428573131561279e-01</leafValues></_>
        <_>
          <internalNodes>
            0 -1 188 -1.7116488015744835e-04</internalNodes>
          <leafValues>
            8.9820224046707153e-01 -9.3345326185226440e-01</leafValues></_>
        <_>
          <internalNodes>
            0 -1 66 -4.0588233969174325e-04</internalNodes>
          <leafValues>
            8.1208795309066772e-01 -7.6134377717971802e-01</leafValues></_>
        <_>
          <internalNodes>
            0 -1 267 -4.2840247042477131e-03</internalNodes>
          <leafValues>
            1. -3.1323561072349548e-01</leafValues></_>
        <_>
          <internalNodes>
            0 -1 386 9.1475667431950569e-04</internalNodes>
          <leafValues>
            2.3188909888267517e-01 -8.6931496858596802e-01</leafValues></_>
        <_>
          <internalNodes>
            0 -1 233 6.4046913757920265e-03</internalNodes>
          <leafValues>
            -2.1668270230293274e-01 9.8250293731689453e-01</leafValues></_>
        <_>
          <internalNodes>
            0 -1 366 -5.3349504014477134e-04</internalNodes>
          <leafValues>
            -1. 9.1219320893287659e-02</leafValues></_>
        <_>
          <internalNodes>
            0 -1 350 8.5935456445440650e-04</internalNodes>
          <leafValues>
            -8.3377115428447723e-02 9.4038844108581543e-01</leafValues></_>
        <_>
          <internalNodes>
            0 -1 358 1.3426331803202629e-02</internalNodes>
          <leafValues>
            3.4227471798658371e-02 -1.</leafValues></_>
        <_>
          <internalNodes>
            0 -1 196 -2.0617473870515823e-02</internalNodes>
          <leafValues>
            9.2978233098983765e-01 -2.2391485050320625e-02</leafValues></_>
        <_>
          <internalNodes>
            0 -1 179 3.8044169545173645e-02</internalNodes>
          <leafValues>
            1.3534168712794781e-02 -1.</leafValues></_>
        <_>
          <internalNodes>
            0 -1 175 -9.8285852000117302e-03</internalNodes>
          <leafValues>
            1. -8.3722146227955818e-03</leafValues></_>
        <_>
          <internalNodes>
            0 -1 88 -3.2535456120967865e-03</internalNodes>
          <leafValues>
            -1. 5.3083542734384537e-03</leafValues></_>
        <_>
          <internalNodes>
            0 -1 63 -1.6382016474381089e-03</internalNodes>
          <leafValues>
            1. -2.7433307841420174e-03</leafValues></_>
        <_>
          <internalNodes>
            0 -1 4 -8.6269911844283342e-04</internalNodes>
          <leafValues>
            -1. 9.6647703321650624e-04</leafValues></_>
        <_>
          <internalNodes>
            0 -1 4 -8.9626852422952652e-04</internalNodes>
          <leafValues>
            1. 3.0093666447683631e-10</leafValues></_>
        <_>
          <internalNodes>
            0 -1 4 -8.6269911844283342e-04</internalNodes>
          <leafValues>
            -1. -2.0347593171466359e-14</leafValues></_>
        <_>
          <internalNodes>
            0 -1 4 -8.9626852422952652e-04</internalNodes>
          <leafValues>
            1. 4.7470390282750106e-15</leafValues></_>
        <_>
          <internalNodes>
            0 -1 4 -8.6269911844283342e-04</internalNodes>
          <leafValues>
            -1. -2.5292420745672353e-15</leafValues></_>
        <_>
          <internalNodes>
            0 -1 4 -8.9626852422952652e-04</internalNodes>
          <leafValues>
            1. 7.9971319754605467e-15</leafValues></_>
        <_>
          <internalNodes>
            0 -1 4 -8.6269911844283342e-04</internalNodes>
          <leafValues>
            -1. -4.2948648889434057e-15</leafValues></_>
        <_>
          <internalNodes>
            0 -1 4 -8.9626852422952652e-04</internalNodes>
          <leafValues>
            1. -7.7162153778580098e-17</leafValues></_>
        <_>
          <internalNodes>
            0 -1 4 -8.6269911844283342e-04</internalNodes>
          <leafValues>
            -1. 2.0980043927000498e-16</leafValues></_>
        <_>
          <internalNodes>
            0 -1 4 -8.9626852422952652e-04</internalNodes>
          <leafValues>
            1. -2.1118063313544156e-17</leafValues></_>
        <_>
          <internalNodes>
            0 -1 4 -8.6269911844283342e-04</internalNodes>
          <leafValues>
            -1. -1.8014368496937399e-15</leafValues></_>
        <_>
          <internalNodes>
            0 -1 4 -8.9626852422952652e-04</internalNodes>
          <leafValues>
            1. 5.6798307791861382e-16</leafValues></_>
        <_>
          <internalNodes>
            0 -1 4 -8.6269911844283342e-04</internalNodes>
          <leafValues>
            -1. 5.1416361030170044e-16</leafValues></_>
        <_>
          <internalNodes>
            0 -1 4 -8.9626852422952652e-04</internalNodes>
          <leafValues>
            1. -4.9894326865504302e-18</leafValues></_>
        <_>
          <internalNodes>
            0 -1 4 -8.6269911844283342e-04</internalNodes>
          <leafValues>
            -1. 2.7148652686119566e-16</leafValues></_>
        <_>
          <internalNodes>
            0 -1 4 -8.9626852422952652e-04</internalNodes>
          <leafValues>
            1. -8.9345655661843015e-18</leafValues></_>
        <_>
          <internalNodes>
            0 -1 4 -8.6269911844283342e-04</internalNodes>
          <leafValues>
            -1. 2.6854909600945655e-16</leafValues></_>
        <_>
          <internalNodes>
            0 -1 4 -8.9626852422952652e-04</internalNodes>
          <leafValues>
            1. -1.7985163065613866e-17</leafValues></_>
        <_>
          <internalNodes>
            0 -1 4 -8.6269911844283342e-04</internalNodes>
          <leafValues>
            -1. -1.8005328537807827e-15</leafValues></_>
        <_>
          <internalNodes>
            0 -1 4 -8.9626852422952652e-04</internalNodes>
          <leafValues>
            1. 4.5867967000387316e-16</leafValues></_>
        <_>
          <internalNodes>
            0 -1 4 -8.6269911844283342e-04</internalNodes>
          <leafValues>
            -1. 5.4873494240652949e-16</leafValues></_>
        <_>
          <internalNodes>
            0 -1 4 -8.9626852422952652e-04</internalNodes>
          <leafValues>
            1. 2.9936596119302581e-17</leafValues></_>
        <_>
          <internalNodes>
            0 -1 4 -8.6269911844283342e-04</internalNodes>
          <leafValues>
            -1. 2.8278433172101232e-16</leafValues></_>
        <_>
          <internalNodes>
            0 -1 4 -8.9626852422952652e-04</internalNodes>
          <leafValues>
            1. -4.6413327509115772e-18</leafValues></_>
        <_>
          <internalNodes>
            0 -1 4 -8.6269911844283342e-04</internalNodes>
          <leafValues>
            -1. 2.7984690086927321e-16</leafValues></_>
        <_>
          <internalNodes>
            0 -1 4 -8.9626852422952652e-04</internalNodes>
          <leafValues>
            1. -5.8016657318443184e-18</leafValues></_>
        <_>
          <internalNodes>
            0 -1 4 -8.6269911844283342e-04</internalNodes>
          <leafValues>
            -1. 2.7058268976691612e-16</leafValues></_>
        <_>
          <internalNodes>
            0 -1 4 -8.9626852422952652e-04</internalNodes>
          <leafValues>
            1. -1.7637063957155626e-17</leafValues></_>
        <_>
          <internalNodes>
            0 -1 4 -8.6269911844283342e-04</internalNodes>
          <leafValues>
            -1. 2.6764525891517701e-16</leafValues></_>
        <_>
          <internalNodes>
            0 -1 4 -8.9626852422952652e-04</internalNodes>
          <leafValues>
            1. -7.7394220953793075e-17</leafValues></_>
        <_>
          <internalNodes>
            0 -1 4 -8.6269911844283342e-04</internalNodes>
          <leafValues>
            -1. 2.0968746625066493e-16</leafValues></_>
        <_>
          <internalNodes>
            0 -1 4 -8.9626852422952652e-04</internalNodes>
          <leafValues>
            1. -2.1234096901150644e-17</leafValues></_>
        <_>
          <internalNodes>
            0 -1 4 -8.6269911844283342e-04</internalNodes>
          <leafValues>
            -1. -1.8015497168339615e-15</leafValues></_>
        <_>
          <internalNodes>
            0 -1 4 -8.9626852422952652e-04</internalNodes>
          <leafValues>
            1. 4.5763538425902701e-16</leafValues></_>
        <_>
          <internalNodes>
            0 -1 4 -8.6269911844283342e-04</internalNodes>
          <leafValues>
            -1. 3.1667777277024191e-16</leafValues></_>
        <_>
          <internalNodes>
            0 -1 4 -8.9626852422952652e-04</internalNodes>
          <leafValues>
            1. 3.2373294841593939e-17</leafValues></_>
        <_>
          <internalNodes>
            0 -1 4 -8.6269911844283342e-04</internalNodes>
          <leafValues>
            -1. 2.8346219630683218e-16</leafValues></_>
        <_>
          <internalNodes>
            0 -1 4 -8.9626852422952652e-04</internalNodes>
          <leafValues>
            1. 2.8892293830844185e-17</leafValues></_>
        <_>
          <internalNodes>
            0 -1 4 -8.6269911844283342e-04</internalNodes>
          <leafValues>
            -1. 2.8007284690795330e-16</leafValues></_>
        <_>
          <internalNodes>
            0 -1 4 -8.9626852422952652e-04</internalNodes>
          <leafValues>
            1. -5.6856325578281361e-18</leafValues></_>
        <_>
          <internalNodes>
            0 -1 4 -8.6269911844283342e-04</internalNodes>
          <leafValues>
            -1. 2.7126055435273597e-16</leafValues></_>
        <_>
          <internalNodes>
            0 -1 4 -8.9626852422952652e-04</internalNodes>
          <leafValues>
            1. -6.7647419447182741e-17</leafValues></_>
        <_>
          <internalNodes>
            0 -1 4 -8.6269911844283342e-04</internalNodes>
          <leafValues>
            -1. 2.1273787012174409e-16</leafValues></_>
        <_>
          <internalNodes>
            0 -1 4 -8.9626852422952652e-04</internalNodes>
          <leafValues>
            1. -1.8716173674918009e-16</leafValues></_>
        <_>
          <internalNodes>
            0 -1 4 -8.6269911844283342e-04</internalNodes>
          <leafValues>
            -1. 2.1273787012174409e-16</leafValues></_>
        <_>
          <internalNodes>
            0 -1 4 -8.9626852422952652e-04</internalNodes>
          <leafValues>
            1. -1.8716173674918009e-16</leafValues></_>
        <_>
          <internalNodes>
            0 -1 4 -8.6269911844283342e-04</internalNodes>
          <leafValues>
            -1. 2.1273787012174409e-16</leafValues></_>
        <_>
          <internalNodes>
            0 -1 4 -8.9626852422952652e-04</internalNodes>
          <leafValues>
            1. -1.8716173674918009e-16</leafValues></_>
        <_>
          <internalNodes>
            0 -1 4 -8.6269911844283342e-04</internalNodes>
          <leafValues>
            -1. 2.1273787012174409e-16</leafValues></_>
        <_>
          <internalNodes>
            0 -1 4 -8.9626852422952652e-04</internalNodes>
          <leafValues>
            1. -1.8716173674918009e-16</leafValues></_>
        <_>
          <internalNodes>
            0 -1 4 -8.6269911844283342e-04</internalNodes>
          <leafValues>
            -1. 2.1273787012174409e-16</leafValues></_>
        <_>
          <internalNodes>
            0 -1 4 -8.9626852422952652e-04</internalNodes>
          <leafValues>
            1. -1.8716173674918009e-16</leafValues></_>
        <_>
          <internalNodes>
            0 -1 4 -8.6269911844283342e-04</internalNodes>
          <leafValues>
            -1. 2.1273787012174409e-16</leafValues></_>
        <_>
          <internalNodes>
            0 -1 4 -8.9626852422952652e-04</internalNodes>
          <leafValues>
            1. -1.8716173674918009e-16</leafValues></_>
        <_>
          <internalNodes>
            0 -1 4 -8.6269911844283342e-04</internalNodes>
          <leafValues>
            -1. 2.1273787012174409e-16</leafValues></_>
        <_>
          <internalNodes>
            0 -1 4 -8.9626852422952652e-04</internalNodes>
          <leafValues>
            1. -1.8716173674918009e-16</leafValues></_>
        <_>
          <internalNodes>
            0 -1 4 -8.6269911844283342e-04</internalNodes>
          <leafValues>
            -1. 2.1273787012174409e-16</leafValues></_>
        <_>
          <internalNodes>
            0 -1 4 -8.9626852422952652e-04</internalNodes>
          <leafValues>
            1. -1.8716173674918009e-16</leafValues></_>
        <_>
          <internalNodes>
            0 -1 4 -8.6269911844283342e-04</internalNodes>
          <leafValues>
            -1. 2.1273787012174409e-16</leafValues></_>
        <_>
          <internalNodes>
            0 -1 4 -8.9626852422952652e-04</internalNodes>
          <leafValues>
            1. -1.8716173674918009e-16</leafValues></_>
        <_>
          <internalNodes>
            0 -1 4 -8.6269911844283342e-04</internalNodes>
          <leafValues>
            -1. 2.1273787012174409e-16</leafValues></_>
        <_>
          <internalNodes>
            0 -1 4 -8.9626852422952652e-04</internalNodes>
          <leafValues>
            1. -1.8716173674918009e-16</leafValues></_>
        <_>
          <internalNodes>
            0 -1 4 -8.6269911844283342e-04</internalNodes>
          <leafValues>
            -1. 2.1273787012174409e-16</leafValues></_>
        <_>
          <internalNodes>
            0 -1 4 -8.9626852422952652e-04</internalNodes>
          <leafValues>
            1. -1.8716173674918009e-16</leafValues></_>
        <_>
          <internalNodes>
            0 -1 4 -8.6269911844283342e-04</internalNodes>
          <leafValues>
            -1. 2.1273787012174409e-16</leafValues></_>
        <_>
          <internalNodes>
            0 -1 4 -8.9626852422952652e-04</internalNodes>
          <leafValues>
            1. -1.8716173674918009e-16</leafValues></_>
        <_>
          <internalNodes>
            0 -1 4 -8.6269911844283342e-04</internalNodes>
          <leafValues>
            -1. 2.1273787012174409e-16</leafValues></_>
        <_>
          <internalNodes>
            0 -1 4 -8.9626852422952652e-04</internalNodes>
          <leafValues>
            1. -1.8716173674918009e-16</leafValues></_>
        <_>
          <internalNodes>
            0 -1 4 -8.6269911844283342e-04</internalNodes>
          <leafValues>
            -1. 2.1273787012174409e-16</leafValues></_>
        <_>
          <internalNodes>
            0 -1 4 -8.9626852422952652e-04</internalNodes>
          <leafValues>
            1. -1.8716173674918009e-16</leafValues></_>
        <_>
          <internalNodes>
            0 -1 4 -8.6269911844283342e-04</internalNodes>
          <leafValues>
            -1. 2.1273787012174409e-16</leafValues></_>
        <_>
          <internalNodes>
            0 -1 4 -8.9626852422952652e-04</internalNodes>
          <leafValues>
            1. -1.8716173674918009e-16</leafValues></_>
        <_>
          <internalNodes>
            0 -1 4 -8.6269911844283342e-04</internalNodes>
          <leafValues>
            -1. 2.1273787012174409e-16</leafValues></_>
        <_>
          <internalNodes>
            0 -1 4 -8.9626852422952652e-04</internalNodes>
          <leafValues>
            1. -1.8716173674918009e-16</leafValues></_>
        <_>
          <internalNodes>
            0 -1 4 -8.6269911844283342e-04</internalNodes>
          <leafValues>
            -1. 2.1273787012174409e-16</leafValues></_>
        <_>
          <internalNodes>
            0 -1 4 -8.9626852422952652e-04</internalNodes>
          <leafValues>
            1. -1.8716173674918009e-16</leafValues></_>
        <_>
          <internalNodes>
            0 -1 4 -8.6269911844283342e-04</internalNodes>
          <leafValues>
            -1. 2.1273787012174409e-16</leafValues></_>
        <_>
          <internalNodes>
            0 -1 4 -8.9626852422952652e-04</internalNodes>
          <leafValues>
            1. -1.8716173674918009e-16</leafValues></_>
        <_>
          <internalNodes>
            0 -1 4 -8.6269911844283342e-04</internalNodes>
          <leafValues>
            -1. 2.1273787012174409e-16</leafValues></_>
        <_>
          <internalNodes>
            0 -1 4 -8.9626852422952652e-04</internalNodes>
          <leafValues>
            1. -1.8716173674918009e-16</leafValues></_>
        <_>
          <internalNodes>
            0 -1 4 -8.6269911844283342e-04</internalNodes>
          <leafValues>
            -1. 1.5579688757085160e-16</leafValues></_>
        <_>
          <internalNodes>
            0 -1 4 -8.9626852422952652e-04</internalNodes>
          <leafValues>
            1. -3.0284694235144087e-16</leafValues></_>
        <_>
          <internalNodes>
            0 -1 4 -8.6269911844283342e-04</internalNodes>
          <leafValues>
            -1. 1.5590986059019164e-16</leafValues></_>
        <_>
          <internalNodes>
            0 -1 4 -8.9626852422952652e-04</internalNodes>
          <leafValues>
            1. -3.0273092530744663e-16</leafValues></_>
        <_>
          <internalNodes>
            0 -1 4 -8.6269911844283342e-04</internalNodes>
          <leafValues>
            -1. 1.6415726157892915e-16</leafValues></_>
        <_>
          <internalNodes>
            0 -1 4 -8.9626852422952652e-04</internalNodes>
          <leafValues>
            1. -3.0203471716436280e-16</leafValues></_></weakClassifiers></_>
    <!-- stage 5 -->
    <_>
      <maxWeakCount>100</maxWeakCount>
      <stageThreshold>-2.9467420578002930e+00</stageThreshold>
      <weakClassifiers>
        <_>
          <internalNodes>
            0 -1 255 -6.4007943728938699e-04</internalNodes>
          <leafValues>
            9.5266270637512207e-01 -9.8545455932617188e-01</leafValues></_>
        <_>
          <internalNodes>
            0 -1 223 -2.5206126156263053e-04</internalNodes>
          <leafValues>
            8.9236539602279663e-01 -9.2392361164093018e-01</leafValues></_>
        <_>
          <internalNodes>
            0 -1 73 -1.1061167344450951e-02</internalNodes>
          <leafValues>
            8.5448205471038818e-01 -7.3782819509506226e-01</leafValues></_>
        <_>
          <internalNodes>
            0 -1 95 4.7201123088598251e-02</internalNodes>
          <leafValues>
            -3.0933797359466553e-01 1.</leafValues></_>
        <_>
          <internalNodes>
            0 -1 275 -1.2682883068919182e-02</internalNodes>
          <leafValues>
            9.5653104782104492e-01 -9.0231090784072876e-02</leafValues></_>
        <_>
          <internalNodes>
            0 -1 143 1.6317116096615791e-03</internalNodes>
          <leafValues>
            1.6328686475753784e-01 -9.4017779827117920e-01</leafValues></_>
        <_>
          <internalNodes>
            0 -1 115 2.0180073988740332e-05</internalNodes>
          <leafValues>
            -9.7055688500404358e-02 9.8659658432006836e-01</leafValues></_>
        <_>
          <internalNodes>
            0 -1 393 9.2752487398684025e-04</internalNodes>
          <leafValues>
            7.7434226870536804e-02 -9.2037582397460938e-01</leafValues></_>
        <_>
          <internalNodes>
            0 -1 308 2.3954662538017146e-05</internalNodes>
          <leafValues>
            -5.5571068078279495e-02 9.7504550218582153e-01</leafValues></_>
        <_>
          <internalNodes>
            0 -1 265 -3.0717041809111834e-03</internalNodes>
          <leafValues>
            1. -1.4485110528767109e-02</leafValues></_>
        <_>
          <internalNodes>
            0 -1 253 8.1112813204526901e-03</internalNodes>
          <leafValues>
            3.2455708831548691e-02 -9.2788434028625488e-01</leafValues></_>
        <_>
          <internalNodes>
            0 -1 287 4.5543277519755065e-04</internalNodes>
          <leafValues>
            -1.5797112137079239e-02 9.4808298349380493e-01</leafValues></_>
        <_>
          <internalNodes>
            0 -1 383 1.8053147941827774e-03</internalNodes>
          <leafValues>
            1.4090509153902531e-02 -1.</leafValues></_>
        <_>
          <internalNodes>
            0 -1 373 -3.9444612339138985e-03</internalNodes>
          <leafValues>
            1. -9.8124006763100624e-03</leafValues></_>
        <_>
          <internalNodes>
            0 -1 65 -1.3156255008652806e-03</internalNodes>
          <leafValues>
            -1. 5.4873293265700340e-03</leafValues></_>
        <_>
          <internalNodes>
            0 -1 54 -2.4072625674307346e-03</internalNodes>
          <leafValues>
            1. -4.6914984704926610e-04</leafValues></_>
        <_>
          <internalNodes>
            0 -1 65 -1.3156255008652806e-03</internalNodes>
          <leafValues>
            -1. 4.6920488239265978e-04</leafValues></_>
        <_>
          <internalNodes>
            0 -1 59 -3.2924141851253808e-04</internalNodes>
          <leafValues>
            1. 3.4409520371925240e-11</leafValues></_>
        <_>
          <internalNodes>
            0 -1 18 -9.5779111143201590e-04</internalNodes>
          <leafValues>
            -1. 1.2175994431728055e-14</leafValues></_>
        <_>
          <internalNodes>
            0 -1 16 -5.2150571718811989e-03</internalNodes>
          <leafValues>
            1. -1.4952105105805504e-14</leafValues></_>
        <_>
          <internalNodes>
            0 -1 6 -1.2568156234920025e-03</internalNodes>
          <leafValues>
            -1. -3.2841773412248124e-15</leafValues></_>
        <_>
          <internalNodes>
            0 -1 6 -1.3563054380938411e-03</internalNodes>
          <leafValues>
            1. 2.0225195216522218e-14</leafValues></_>
        <_>
          <internalNodes>
            0 -1 6 -1.2568156234920025e-03</internalNodes>
          <leafValues>
            -1. -1.2027656092774251e-14</leafValues></_>
        <_>
          <internalNodes>
            0 -1 6 -6.4081797609105706e-04</internalNodes>
          <leafValues>
            1. 1.9125497423299644e-14</leafValues></_>
        <_>
          <internalNodes>
            0 -1 6 -1.2568156234920025e-03</internalNodes>
          <leafValues>
            -1. -4.2785167295449240e-15</leafValues></_>
        <_>
          <internalNodes>
            0 -1 6 -6.4081797609105706e-04</internalNodes>
          <leafValues>
            1. 7.4273566287651020e-16</leafValues></_>
        <_>
          <internalNodes>
            0 -1 6 -1.2568156234920025e-03</internalNodes>
          <leafValues>
            -1. -1.6163319868731790e-14</leafValues></_>
        <_>
          <internalNodes>
            0 -1 6 -6.4081797609105706e-04</internalNodes>
          <leafValues>
            1. 1.2395301426167561e-14</leafValues></_>
        <_>
          <internalNodes>
            0 -1 6 -1.2568156234920025e-03</internalNodes>
          <leafValues>
            -1. -1.9745152846193000e-14</leafValues></_>
        <_>
          <internalNodes>
            0 -1 6 -6.4081797609105706e-04</internalNodes>
          <leafValues>
            1. 7.8774081035308877e-15</leafValues></_>
        <_>
          <internalNodes>
            0 -1 6 -1.2568156234920025e-03</internalNodes>
          <leafValues>
            -1. 1.4511173634782805e-14</leafValues></_>
        <_>
          <internalNodes>
            0 -1 6 -6.4081797609105706e-04</internalNodes>
          <leafValues>
            1. -2.6929316151406025e-15</leafValues></_>
        <_>
          <internalNodes>
            0 -1 6 -1.2568156234920025e-03</internalNodes>
          <leafValues>
            -1. -1.3149949336897782e-14</leafValues></_>
        <_>
          <internalNodes>
            0 -1 6 -6.4081797609105706e-04</internalNodes>
          <leafValues>
            1. 1.7190809797266830e-14</leafValues></_>
        <_>
          <internalNodes>
            0 -1 6 -1.2568156234920025e-03</internalNodes>
          <leafValues>
            -1. -2.4326703235914675e-14</leafValues></_>
        <_>
          <internalNodes>
            0 -1 6 -6.4081797609105706e-04</internalNodes>
          <leafValues>
            1. 1.9747094245708106e-14</leafValues></_>
        <_>
          <internalNodes>
            0 -1 6 -1.2568156234920025e-03</internalNodes>
          <leafValues>
            -1. -3.9252468158159411e-15</leafValues></_>
        <_>
          <internalNodes>
            0 -1 6 -6.4081797609105706e-04</internalNodes>
          <leafValues>
            1. -1.6565503817582341e-15</leafValues></_>
        <_>
          <internalNodes>
            0 -1 6 -1.2568156234920025e-03</internalNodes>
          <leafValues>
            -1. -1.0817616164545806e-14</leafValues></_>
        <_>
          <internalNodes>
            0 -1 6 -6.4081797609105706e-04</internalNodes>
          <leafValues>
            1. 1.4373233260531258e-15</leafValues></_>
        <_>
          <internalNodes>
            0 -1 6 -1.2568156234920025e-03</internalNodes>
          <leafValues>
            -1. 1.8183567986832655e-14</leafValues></_>
        <_>
          <internalNodes>
            0 -1 6 -6.4081797609105706e-04</internalNodes>
          <leafValues>
            1. -2.9782027826551942e-15</leafValues></_>
        <_>
          <internalNodes>
            0 -1 6 -1.2568156234920025e-03</internalNodes>
          <leafValues>
            -1. 2.2652214813915963e-15</leafValues></_>
        <_>
          <internalNodes>
            0 -1 6 -6.4081797609105706e-04</internalNodes>
          <leafValues>
            1. -2.2028705391112600e-15</leafValues></_>
        <_>
          <internalNodes>
            0 -1 6 -1.2568156234920025e-03</internalNodes>
          <leafValues>
            -1. 1.7398969414603995e-15</leafValues></_>
        <_>
          <internalNodes>
            0 -1 6 -6.4081797609105706e-04</internalNodes>
          <leafValues>
            1. 4.7574130642965076e-15</leafValues></_>
        <_>
          <internalNodes>
            0 -1 6 -1.2568156234920025e-03</internalNodes>
          <leafValues>
            -1. -7.2502674504826455e-15</leafValues></_>
        <_>
          <internalNodes>
            0 -1 6 -6.4081797609105706e-04</internalNodes>
          <leafValues>
            1. 2.8885083462880682e-15</leafValues></_>
        <_>
          <internalNodes>
            0 -1 6 -1.2568156234920025e-03</internalNodes>
          <leafValues>
            -1. 7.2136646157329454e-15</leafValues></_>
        <_>
          <internalNodes>
            0 -1 6 -6.4081797609105706e-04</internalNodes>
          <leafValues>
            1. -2.2587258398289872e-14</leafValues></_>
        <_>
          <internalNodes>
            0 -1 6 -1.2568156234920025e-03</internalNodes>
          <leafValues>
            -1. 1.1499520462249354e-15</leafValues></_>
        <_>
          <internalNodes>
            0 -1 6 -6.4081797609105706e-04</internalNodes>
          <leafValues>
            1. 1.8376864293527875e-14</leafValues></_>
        <_>
          <internalNodes>
            0 -1 6 -1.2568156234920025e-03</internalNodes>
          <leafValues>
            -1. -1.5883663470866310e-14</leafValues></_>
        <_>
          <internalNodes>
            0 -1 6 -6.4081797609105706e-04</internalNodes>
          <leafValues>
            1. -1.8812522349179205e-16</leafValues></_>
        <_>
          <internalNodes>
            0 -1 6 -1.2568156234920025e-03</internalNodes>
          <leafValues>
            -1. 9.1296861767071157e-15</leafValues></_>
        <_>
          <internalNodes>
            0 -1 6 -6.4081797609105706e-04</internalNodes>
          <leafValues>
            1. 3.9284973047510295e-15</leafValues></_>
        <_>
          <internalNodes>
            0 -1 6 -1.2568156234920025e-03</internalNodes>
          <leafValues>
            -1. -8.1487417674148835e-16</leafValues></_>
        <_>
          <internalNodes>
            0 -1 6 -6.4081797609105706e-04</internalNodes>
          <leafValues>
            1. -1.0140123637948032e-15</leafValues></_>
        <_>
          <internalNodes>
            0 -1 6 -1.2568156234920025e-03</internalNodes>
          <leafValues>
            -1. -1.4696543407157620e-14</leafValues></_>
        <_>
          <internalNodes>
            0 -1 6 -6.4081797609105706e-04</internalNodes>
          <leafValues>
            1. 1.6451929404849748e-14</leafValues></_>
        <_>
          <internalNodes>
            0 -1 6 -1.2568156234920025e-03</internalNodes>
          <leafValues>
            -1. 2.8965145017055159e-15</leafValues></_>
        <_>
          <internalNodes>
            0 -1 6 -6.4081797609105706e-04</internalNodes>
          <leafValues>
            1. -1.8335510450977026e-14</leafValues></_>
        <_>
          <internalNodes>
            0 -1 6 -1.2568156234920025e-03</internalNodes>
          <leafValues>
            -1. 5.7305548178368700e-15</leafValues></_>
        <_>
          <internalNodes>
            0 -1 6 -6.4081797609105706e-04</internalNodes>
          <leafValues>
            1. -3.9697334097222106e-15</leafValues></_>
        <_>
          <internalNodes>
            0 -1 6 -1.2568156234920025e-03</internalNodes>
          <leafValues>
            -1. -1.0085098260112025e-15</leafValues></_>
        <_>
          <internalNodes>
            0 -1 6 -6.4081797609105706e-04</internalNodes>
          <leafValues>
            1. 3.4823550987950593e-15</leafValues></_>
        <_>
          <internalNodes>
            0 -1 6 -1.2568156234920025e-03</internalNodes>
          <leafValues>
            -1. -2.5518339255781652e-15</leafValues></_>
        <_>
          <internalNodes>
            0 -1 6 -6.4081797609105706e-04</internalNodes>
          <leafValues>
            1. 1.2343926336817745e-14</leafValues></_>
        <_>
          <internalNodes>
            0 -1 6 -1.2568156234920025e-03</internalNodes>
          <leafValues>
            -1. -5.0384823131180076e-15</leafValues></_>
        <_>
          <internalNodes>
            0 -1 6 -6.4081797609105706e-04</internalNodes>
          <leafValues>
            1. 1.0133018725586463e-14</leafValues></_>
        <_>
          <internalNodes>
            0 -1 6 -1.2568156234920025e-03</internalNodes>
          <leafValues>
            -1. -9.7009899943558808e-16</leafValues></_>
        <_>
          <internalNodes>
            0 -1 6 -6.4081797609105706e-04</internalNodes>
          <leafValues>
            1. -1.9119463160583404e-14</leafValues></_>
        <_>
          <internalNodes>
            0 -1 6 -1.2568156234920025e-03</internalNodes>
          <leafValues>
            -1. 6.9941575097596511e-16</leafValues></_>
        <_>
          <internalNodes>
            0 -1 6 -6.4081797609105706e-04</internalNodes>
          <leafValues>
            1. 1.2619766004222897e-14</leafValues></_>
        <_>
          <internalNodes>
            0 -1 6 -1.2568156234920025e-03</internalNodes>
          <leafValues>
            -1. 2.6243624451757948e-16</leafValues></_>
        <_>
          <internalNodes>
            0 -1 6 -6.4081797609105706e-04</internalNodes>
          <leafValues>
            1. -1.7102155940875406e-14</leafValues></_>
        <_>
          <internalNodes>
            0 -1 6 -1.2568156234920025e-03</internalNodes>
          <leafValues>
            -1. 3.5140248136599503e-15</leafValues></_>
        <_>
          <internalNodes>
            0 -1 6 -6.4081797609105706e-04</internalNodes>
          <leafValues>
            1. 1.2576549536221036e-14</leafValues></_>
        <_>
          <internalNodes>
            0 -1 6 -1.2568156234920025e-03</internalNodes>
          <leafValues>
            -1. 5.0600599480537189e-16</leafValues></_>
        <_>
          <internalNodes>
            0 -1 6 -6.4081797609105706e-04</internalNodes>
          <leafValues>
            1. -8.1548495102392975e-15</leafValues></_>
        <_>
          <internalNodes>
            0 -1 6 -1.2568156234920025e-03</internalNodes>
          <leafValues>
            -1. -1.5873834712304608e-15</leafValues></_>
        <_>
          <internalNodes>
            0 -1 6 -6.4081797609105706e-04</internalNodes>
          <leafValues>
            1. 1.2090569464931564e-14</leafValues></_>
        <_>
          <internalNodes>
            0 -1 6 -1.2568156234920025e-03</internalNodes>
          <leafValues>
            -1. 4.3890004778716636e-16</leafValues></_>
        <_>
          <internalNodes>
            0 -1 6 -6.4081797609105706e-04</internalNodes>
          <leafValues>
            1. -1.7313461862095147e-14</leafValues></_>
        <_>
          <internalNodes>
            0 -1 6 -1.2568156234920025e-03</internalNodes>
          <leafValues>
            -1. 1.3256250912987012e-15</leafValues></_>
        <_>
          <internalNodes>
            0 -1 6 -6.4081797609105706e-04</internalNodes>
          <leafValues>
            1. 1.3216408388972301e-14</leafValues></_>
        <_>
          <internalNodes>
            0 -1 6 -1.2568156234920025e-03</internalNodes>
          <leafValues>
            -1. 6.6349038376539086e-16</leafValues></_>
        <_>
          <internalNodes>
            0 -1 6 -6.4081797609105706e-04</internalNodes>
          <leafValues>
            1. -1.6817928953226542e-14</leafValues></_>
        <_>
          <internalNodes>
            0 -1 6 -1.2568156234920025e-03</internalNodes>
          <leafValues>
            -1. 1.5032185718221293e-15</leafValues></_>
        <_>
          <internalNodes>
            0 -1 6 -6.4081797609105706e-04</internalNodes>
          <leafValues>
            1. 1.3331263515521143e-14</leafValues></_>
        <_>
          <internalNodes>
            0 -1 6 -1.2568156234920025e-03</internalNodes>
          <leafValues>
            -1. 2.6791544124952745e-15</leafValues></_>
        <_>
          <internalNodes>
            0 -1 6 -6.4081797609105706e-04</internalNodes>
          <leafValues>
            1. -1.7476541115430018e-14</leafValues></_>
        <_>
          <internalNodes>
            0 -1 6 -1.2568156234920025e-03</internalNodes>
          <leafValues>
            -1. 1.4479747653648486e-15</leafValues></_>
        <_>
          <internalNodes>
            0 -1 6 -6.4081797609105706e-04</internalNodes>
          <leafValues>
            1. 1.3339999813339123e-14</leafValues></_>
        <_>
          <internalNodes>
            0 -1 6 -1.2568156234920025e-03</internalNodes>
          <leafValues>
            -1. 2.6875144159264376e-15</leafValues></_>
        <_>
          <internalNodes>
            0 -1 6 -6.4081797609105706e-04</internalNodes>
          <leafValues>
            1. -1.7473979687797521e-14</leafValues></_>
        <_>
          <internalNodes>
            0 -1 6 -1.2568156234920025e-03</internalNodes>
          <leafValues>
            -1. 1.4564477418153518e-15</leafValues></_>
        <_>
          <internalNodes>
            0 -1 6 -6.4081797609105706e-04</internalNodes>
          <leafValues>
            1. 1.3340349637946339e-14</leafValues></_>
        <_>
          <internalNodes>
            0 -1 6 -1.2568156234920025e-03</internalNodes>
          <leafValues>
            -1. 2.6884182000811579e-15</leafValues></_>
        <_>
          <internalNodes>
            0 -1 6 -6.4081797609105706e-04</internalNodes>
          <leafValues>
            1. -1.7473047951555541e-14</leafValues></_></weakClassifiers></_>
    <!-- stage 6 -->
    <_>
      <maxWeakCount>100</maxWeakCount>
      <stageThreshold>-2.9439771175384521e+00</stageThreshold>
      <weakClassifiers>
        <_>
          <internalNodes>
            0 -1 210 1.0116033256053925e-02</internalNodes>
          <leafValues>
            -9.8538810014724731e-01 9.3359375000000000e-01</leafValues></_>
        <_>
          <internalNodes>
            0 -1 173 -3.9572868496179581e-02</internalNodes>
          <leafValues>
            8.7204122543334961e-01 -9.1621315479278564e-01</leafValues></_>
        <_>
          <internalNodes>
            0 -1 102 -7.8248391218949109e-05</internalNodes>
          <leafValues>
            7.8603398799896240e-01 -7.4945592880249023e-01</leafValues></_>
        <_>
          <internalNodes>
            0 -1 251 -4.3965419754385948e-03</internalNodes>
          <leafValues>
            9.7791606187820435e-01 -3.0939546227455139e-01</leafValues></_>
        <_>
          <internalNodes>
            0 -1 234 1.4954706653952599e-02</internalNodes>
          <leafValues>
            -1.4078554511070251e-01 9.4740062952041626e-01</leafValues></_>
        <_>
          <internalNodes>
            0 -1 363 -1.1779728811234236e-04</internalNodes>
          <leafValues>
            -9.7172081470489502e-01 1.8839278817176819e-01</leafValues></_>
        <_>
          <internalNodes>
            0 -1 349 1.4973458601161838e-03</internalNodes>
          <leafValues>
            -1.2454902380704880e-01 9.3985098600387573e-01</leafValues></_>
        <_>
          <internalNodes>
            0 -1 395 6.9479236844927073e-04</internalNodes>
          <leafValues>
            1.1257339268922806e-01 -8.4288507699966431e-01</leafValues></_>
        <_>
          <internalNodes>
            0 -1 208 1.3885539025068283e-02</internalNodes>
          <leafValues>
            -8.6338393390178680e-02 1.</leafValues></_>
        <_>
          <internalNodes>
            0 -1 339 -1.4769375557079911e-03</internalNodes>
          <leafValues>
            -8.6196208000183105e-01 7.8065194189548492e-02</leafValues></_>
        <_>
          <internalNodes>
            0 -1 99 7.9101696610450745e-03</internalNodes>
          <leafValues>
            -3.7217244505882263e-02 9.6455430984497070e-01</leafValues></_>
        <_>
          <internalNodes>
            0 -1 337 -4.9271970055997372e-04</internalNodes>
          <leafValues>
            -1. 3.3207044005393982e-02</leafValues></_>
        <_>
          <internalNodes>
            0 -1 396 1.7947146261576563e-05</internalNodes>
          <leafValues>
            -1.7869567498564720e-02 9.1080892086029053e-01</leafValues></_>
        <_>
          <internalNodes>
            0 -1 364 1.9929722475353628e-04</internalNodes>
          <leafValues>
            1.3454839587211609e-02 -9.3260282278060913e-01</leafValues></_>
        <_>
          <internalNodes>
            0 -1 384 2.3954662538017146e-05</internalNodes>
          <leafValues>
            -1.0956916958093643e-02 9.4104796648025513e-01</leafValues></_>
        <_>
          <internalNodes>
            0 -1 20 3.4808274358510971e-04</internalNodes>
          <leafValues>
            8.6464388296008110e-03 -1.</leafValues></_>
        <_>
          <internalNodes>
            0 -1 259 -4.5111337676644325e-03</internalNodes>
          <leafValues>
            1. -7.8178495168685913e-03</leafValues></_>
        <_>
          <internalNodes>
            0 -1 162 -2.0769005641341209e-02</internalNodes>
          <leafValues>
            -1. 7.6646935194730759e-03</leafValues></_>
        <_>
          <internalNodes>
            0 -1 96 -6.9196093827486038e-03</internalNodes>
          <leafValues>
            1. -3.1804051250219345e-03</leafValues></_>
        <_>
          <internalNodes>
            0 -1 107 -7.7439015731215477e-03</internalNodes>
          <leafValues>
            -1. 3.1861355528235435e-03</leafValues></_>
        <_>
          <internalNodes>
            0 -1 32 -6.7938365973532200e-03</internalNodes>
          <leafValues>
            1. 1.0781377568491735e-08</leafValues></_>
        <_>
          <internalNodes>
            0 -1 32 -3.8719507865607738e-03</internalNodes>
          <leafValues>
            -1. 1.1962341382211472e-14</leafValues></_>
        <_>
          <internalNodes>
            0 -1 32 -2.3341127671301365e-03</internalNodes>
          <leafValues>
            1. -1.4726951889964049e-14</leafValues></_>
        <_>
          <internalNodes>
            0 -1 32 -3.8719507865607738e-03</internalNodes>
          <leafValues>
            -1. 5.4667891815783545e-15</leafValues></_>
        <_>
          <internalNodes>
            0 -1 32 -2.3341127671301365e-03</internalNodes>
          <leafValues>
            1. -8.8675243973342262e-15</leafValues></_>
        <_>
          <internalNodes>
            0 -1 32 -3.8719507865607738e-03</internalNodes>
          <leafValues>
            -1. 7.1034884991847368e-15</leafValues></_>
        <_>
          <internalNodes>
            0 -1 32 -2.3341127671301365e-03</internalNodes>
          <leafValues>
            1. -8.5799575587743385e-15</leafValues></_>
        <_>
          <internalNodes>
            0 -1 32 -3.8719507865607738e-03</internalNodes>
          <leafValues>
            -1. 7.1645765153407169e-15</leafValues></_>
        <_>
          <internalNodes>
            0 -1 32 -2.3341127671301365e-03</internalNodes>
          <leafValues>
            1. 2.1289397247057154e-14</leafValues></_>
        <_>
          <internalNodes>
            0 -1 32 -3.8719507865607738e-03</internalNodes>
          <leafValues>
            -1. -5.7441729900463510e-15</leafValues></_>
        <_>
          <internalNodes>
            0 -1 32 -2.3341127671301365e-03</internalNodes>
          <leafValues>
            1. -1.7482773583855915e-14</leafValues></_>
        <_>
          <internalNodes>
            0 -1 32 -3.8719507865607738e-03</internalNodes>
          <leafValues>
            -1. 4.7748005331212703e-15</leafValues></_>
        <_>
          <internalNodes>
            0 -1 32 -2.3341127671301365e-03</internalNodes>
          <leafValues>
            1. -8.9738626075984256e-15</leafValues></_>
        <_>
          <internalNodes>
            0 -1 32 -3.8719507865607738e-03</internalNodes>
          <leafValues>
            -1. 6.9991869796422104e-15</leafValues></_>
        <_>
          <internalNodes>
            0 -1 32 -2.3341127671301365e-03</internalNodes>
          <leafValues>
            1. -8.5448997121204302e-15</leafValues></_>
        <_>
          <internalNodes>
            0 -1 32 -3.8719507865607738e-03</internalNodes>
          <leafValues>
            -1. 7.1676309161485159e-15</leafValues></_>
        <_>
          <internalNodes>
            0 -1 32 -2.3341127671301365e-03</internalNodes>
          <leafValues>
            1. 2.1293590060146063e-14</leafValues></_>
        <_>
          <internalNodes>
            0 -1 32 -3.8719507865607738e-03</internalNodes>
          <leafValues>
            -1. -5.7102353444651865e-15</leafValues></_>
        <_>
          <internalNodes>
            0 -1 32 -2.3341127671301365e-03</internalNodes>
          <leafValues>
            1. -1.7589343881147662e-14</leafValues></_>
        <_>
          <internalNodes>
            0 -1 32 -3.8719507865607738e-03</internalNodes>
          <leafValues>
            -1. 5.1769616120822450e-15</leafValues></_>
        <_>
          <internalNodes>
            0 -1 32 -2.3341127671301365e-03</internalNodes>
          <leafValues>
            1. -9.2709805896715528e-15</leafValues></_>
        <_>
          <internalNodes>
            0 -1 32 -3.8719507865607738e-03</internalNodes>
          <leafValues>
            -1. 7.0025806171453847e-15</leafValues></_>
        <_>
          <internalNodes>
            0 -1 32 -2.3341127671301365e-03</internalNodes>
          <leafValues>
            1. -8.5409398330920164e-15</leafValues></_>
        <_>
          <internalNodes>
            0 -1 32 -3.8719507865607738e-03</internalNodes>
          <leafValues>
            -1. 9.0972126275752803e-15</leafValues></_>
        <_>
          <internalNodes>
            0 -1 32 -2.3341127671301365e-03</internalNodes>
          <leafValues>
            1. -9.0776385431971807e-15</leafValues></_>
        <_>
          <internalNodes>
            0 -1 32 -3.8719507865607738e-03</internalNodes>
          <leafValues>
            -1. 9.0396313278209330e-15</leafValues></_>
        <_>
          <internalNodes>
            0 -1 32 -2.3341127671301365e-03</internalNodes>
          <leafValues>
            1. -9.1285367529976916e-15</leafValues></_>
        <_>
          <internalNodes>
            0 -1 32 -3.8719507865607738e-03</internalNodes>
          <leafValues>
            -1. 8.9901959439203302e-15</leafValues></_>
        <_>
          <internalNodes>
            0 -1 32 -2.3341127671301365e-03</internalNodes>
          <leafValues>
            1. -9.2467546003471325e-15</leafValues></_>
        <_>
          <internalNodes>
            0 -1 32 -3.8719507865607738e-03</internalNodes>
          <leafValues>
            -1. 8.9935891579070310e-15</leafValues></_>
        <_>
          <internalNodes>
            0 -1 32 -2.3341127671301365e-03</internalNodes>
          <leafValues>
            1. -9.2434935235002035e-15</leafValues></_>
        <_>
          <internalNodes>
            0 -1 32 -3.8719507865607738e-03</internalNodes>
          <leafValues>
            -1. 9.0266217487840542e-15</leafValues></_>
        <_>
          <internalNodes>
            0 -1 32 -2.3341127671301365e-03</internalNodes>
          <leafValues>
            1. 2.0573566315200756e-14</leafValues></_>
        <_>
          <internalNodes>
            0 -1 32 -3.8719507865607738e-03</internalNodes>
          <leafValues>
            -1. -5.9422554564100317e-15</leafValues></_>
        <_>
          <internalNodes>
            0 -1 32 -2.3341127671301365e-03</internalNodes>
          <leafValues>
            1. -1.7648744607672712e-14</leafValues></_>
        <_>
          <internalNodes>
            0 -1 32 -3.8719507865607738e-03</internalNodes>
          <leafValues>
            -1. 5.0697187706303781e-15</leafValues></_>
        <_>
          <internalNodes>
            0 -1 32 -2.3341127671301365e-03</internalNodes>
          <leafValues>
            1. -9.2677195128246237e-15</leafValues></_>
        <_>
          <internalNodes>
            0 -1 32 -3.8719507865607738e-03</internalNodes>
          <leafValues>
            -1. 6.9779192528860758e-15</leafValues></_>
        <_>
          <internalNodes>
            0 -1 32 -2.3341127671301365e-03</internalNodes>
          <leafValues>
            1. -8.6479768455377005e-15</leafValues></_>
        <_>
          <internalNodes>
            0 -1 32 -3.8719507865607738e-03</internalNodes>
          <leafValues>
            -1. 9.1087509103827784e-15</leafValues></_>
        <_>
          <internalNodes>
            0 -1 32 -2.3341127671301365e-03</internalNodes>
          <leafValues>
            1. -9.1239941153015668e-15</leafValues></_>
        <_>
          <internalNodes>
            0 -1 32 -3.8719507865607738e-03</internalNodes>
          <leafValues>
            -1. 9.0266217487840542e-15</leafValues></_>
        <_>
          <internalNodes>
            0 -1 32 -2.3341127671301365e-03</internalNodes>
          <leafValues>
            1. 2.0573566315200756e-14</leafValues></_>
        <_>
          <internalNodes>
            0 -1 32 -3.8719507865607738e-03</internalNodes>
          <leafValues>
            -1. -5.9422554564100317e-15</leafValues></_>
        <_>
          <internalNodes>
            0 -1 32 -2.3341127671301365e-03</internalNodes>
          <leafValues>
            1. -1.7674601135420596e-14</leafValues></_>
        <_>
          <internalNodes>
            0 -1 32 -3.8719507865607738e-03</internalNodes>
          <leafValues>
            -1. 5.0723204323278696e-15</leafValues></_>
        <_>
          <internalNodes>
            0 -1 32 -2.3341127671301365e-03</internalNodes>
          <leafValues>
            1. -9.1331954342075902e-15</leafValues></_>
        <_>
          <internalNodes>
            0 -1 32 -3.8719507865607738e-03</internalNodes>
          <leafValues>
            -1. 6.9776930950891589e-15</leafValues></_>
        <_>
          <internalNodes>
            0 -1 32 -2.3341127671301365e-03</internalNodes>
          <leafValues>
            1. -8.6504230766893710e-15</leafValues></_>
        <_>
          <internalNodes>
            0 -1 32 -3.8719507865607738e-03</internalNodes>
          <leafValues>
            -1. 9.1086382550007935e-15</leafValues></_>
        <_>
          <internalNodes>
            0 -1 32 -2.3341127671301365e-03</internalNodes>
          <leafValues>
            1. -9.1242270493620617e-15</leafValues></_>
        <_>
          <internalNodes>
            0 -1 32 -3.8719507865607738e-03</internalNodes>
          <leafValues>
            -1. 8.9939288181188799e-15</leafValues></_>
        <_>
          <internalNodes>
            0 -1 32 -2.3341127671301365e-03</internalNodes>
          <leafValues>
            1. -9.2431436988929874e-15</leafValues></_>
        <_>
          <internalNodes>
            0 -1 32 -3.8719507865607738e-03</internalNodes>
          <leafValues>
            -1. 9.0275272270046690e-15</leafValues></_>
        <_>
          <internalNodes>
            0 -1 32 -2.3341127671301365e-03</internalNodes>
          <leafValues>
            1. 2.0574498051442736e-14</leafValues></_>
        <_>
          <internalNodes>
            0 -1 32 -3.8719507865607738e-03</internalNodes>
          <leafValues>
            -1. -5.9419162197146564e-15</leafValues></_>
        <_>
          <internalNodes>
            0 -1 32 -2.3341127671301365e-03</internalNodes>
          <leafValues>
            1. -1.7673669399178617e-14</leafValues></_>
        <_>
          <internalNodes>
            0 -1 32 -3.8719507865607738e-03</internalNodes>
          <leafValues>
            -1. 5.0731124081335524e-15</leafValues></_>
        <_>
          <internalNodes>
            0 -1 32 -2.3341127671301365e-03</internalNodes>
          <leafValues>
            1. -9.1916635774577128e-15</leafValues></_>
        <_>
          <internalNodes>
            0 -1 32 -3.8719507865607738e-03</internalNodes>
          <leafValues>
            -1. 6.9236193587693916e-15</leafValues></_>
        <_>
          <internalNodes>
            0 -1 32 -2.3341127671301365e-03</internalNodes>
          <leafValues>
            1. 2.1110265025305920e-14</leafValues></_>
        <_>
          <internalNodes>
            0 -1 32 -3.8719507865607738e-03</internalNodes>
          <leafValues>
            -1. -5.9422554564100317e-15</leafValues></_>
        <_>
          <internalNodes>
            0 -1 32 -2.3341127671301365e-03</internalNodes>
          <leafValues>
            1. -1.7674601135420596e-14</leafValues></_>
        <_>
          <internalNodes>
            0 -1 32 -3.8719507865607738e-03</internalNodes>
          <leafValues>
            -1. 5.0723204323278696e-15</leafValues></_>
        <_>
          <internalNodes>
            0 -1 32 -2.3341127671301365e-03</internalNodes>
          <leafValues>
            1. -9.3109300515958546e-15</leafValues></_>
        <_>
          <internalNodes>
            0 -1 32 -3.8719507865607738e-03</internalNodes>
          <leafValues>
            -1. 6.9318775064886474e-15</leafValues></_>
        <_>
          <internalNodes>
            0 -1 32 -2.3341127671301365e-03</internalNodes>
          <leafValues>
            1. 2.1051679144476129e-14</leafValues></_>
        <_>
          <internalNodes>
            0 -1 32 -3.8719507865607738e-03</internalNodes>
          <leafValues>
            -1. -6.0570779721904038e-15</leafValues></_>
        <_>
          <internalNodes>
            0 -1 32 -2.3341127671301365e-03</internalNodes>
          <leafValues>
            1. -1.7790373598651314e-14</leafValues></_>
        <_>
          <internalNodes>
            0 -1 32 -3.8719507865607738e-03</internalNodes>
          <leafValues>
            -1. 5.0482248860773266e-15</leafValues></_>
        <_>
          <internalNodes>
            0 -1 32 -2.3341127671301365e-03</internalNodes>
          <leafValues>
            1. -9.4181999981020337e-15</leafValues></_>
        <_>
          <internalNodes>
            0 -1 32 -3.8719507865607738e-03</internalNodes>
          <leafValues>
            -1. 6.8197701548206990e-15</leafValues></_>
        <_>
          <internalNodes>
            0 -1 32 -2.3341127671301365e-03</internalNodes>
          <leafValues>
            1. 2.1063908606168587e-14</leafValues></_>
        <_>
          <internalNodes>
            0 -1 32 -3.8719507865607738e-03</internalNodes>
          <leafValues>
            -1. -6.0457654236633490e-15</leafValues></_>
        <_>
          <internalNodes>
            0 -1 32 -2.3341127671301365e-03</internalNodes>
          <leafValues>
            1. -1.7958790853619781e-14</leafValues></_>
        <_>
          <internalNodes>
            0 -1 32 -3.8719507865607738e-03</internalNodes>
          <leafValues>
            -1. 5.0604424893085226e-15</leafValues></_>
        <_>
          <internalNodes>
            0 -1 32 -2.3341127671301365e-03</internalNodes>
          <leafValues>
            1. -9.3799971181149702e-15</leafValues></_>
        <_>
          <internalNodes>
            0 -1 32 -3.8719507865607738e-03</internalNodes>
          <leafValues>
            -1. 8.8648528554185861e-15</leafValues></_>
        <_>
          <internalNodes>
            0 -1 32 -2.3341127671301365e-03</internalNodes>
          <leafValues>
            1. -9.4859863508049008e-15</leafValues></_>
        <_>
          <internalNodes>
            0 -1 32 -3.8719507865607738e-03</internalNodes>
          <leafValues>
            -1. 8.7621348639709516e-15</leafValues></_></weakClassifiers></_>
    <!-- stage 7 -->
    <_>
      <maxWeakCount>100</maxWeakCount>
      <stageThreshold>-2.9308676719665527e+00</stageThreshold>
      <weakClassifiers>
        <_>
          <internalNodes>
            0 -1 289 -1.3775337720289826e-04</internalNodes>
          <leafValues>
            9.1732281446456909e-01 -9.7088259458541870e-01</leafValues></_>
        <_>
          <internalNodes>
            0 -1 269 2.0759704057127237e-03</internalNodes>
          <leafValues>
            -9.4643414020538330e-01 7.6658236980438232e-01</leafValues></_>
        <_>
          <internalNodes>
            0 -1 166 -6.9771431386470795e-02</internalNodes>
          <leafValues>
            8.4128326177597046e-01 -6.6784739494323730e-01</leafValues></_>
        <_>
          <internalNodes>
            0 -1 286 7.6169861131347716e-05</internalNodes>
          <leafValues>
            -3.2115268707275391e-01 9.5534360408782959e-01</leafValues></_>
        <_>
          <internalNodes>
            0 -1 90 -7.3585826612543315e-05</internalNodes>
          <leafValues>
            8.5841298103332520e-01 -1.5203717350959778e-01</leafValues></_>
        <_>
          <internalNodes>
            0 -1 98 -1.1213489342480898e-03</internalNodes>
          <leafValues>
            -8.1079894304275513e-01 1.8875713646411896e-01</leafValues></_>
        <_>
          <internalNodes>
            0 -1 262 -2.5303902104496956e-02</internalNodes>
          <leafValues>
            9.5061200857162476e-01 -1.3185760378837585e-01</leafValues></_>
        <_>
          <internalNodes>
            0 -1 379 -5.1095226081088185e-04</internalNodes>
          <leafValues>
            -1. 1.0349685698747635e-01</leafValues></_>
        <_>
          <internalNodes>
            0 -1 360 9.7396783530712128e-04</internalNodes>
          <leafValues>
            -1.2044821679592133e-01 9.4567883014678955e-01</leafValues></_>
        <_>
          <internalNodes>
            0 -1 103 -7.6658639591187239e-04</internalNodes>
          <leafValues>
